digraph Tree {
node [shape=box] ;
0 [label="X[0] <= 28.85\nentropy = 0.94\nsamples = 14\nvalue = [5, 9]"] ;
1 [label="X[3] <= 0.5\nentropy = 0.89\nsamples = 13\nvalue = [4, 9]"] ;
0 -> 1 [labeldistance=2.5, labelangle=45, headlabel="True"] ;
2 [label="X[2] <= 87.5\nentropy = 0.592\nsamples = 7\nvalue = [1, 6]"] ;
1 -> 2 ;
3 [label="entropy = 0.0\nsamples = 5\nvalue = [0, 5]"] ;
2 -> 3 ;
4 [label="X[2] <= 95.5\nentropy = 1.0\nsamples = 2\nvalue = [1, 1]"] ;
2 -> 4 ;
5 [label="entropy = 0.0\nsamples = 1\nvalue = [1, 0]"] ;
4 -> 5 ;
6 [label="entropy = 0.0\nsamples = 1\nvalue = [0, 1]"] ;
4 -> 6 ;
7 [label="X[1] <= 0.5\nentropy = 1.0\nsamples = 6\nvalue = [3, 3]"] ;
1 -> 7 ;
8 [label="entropy = 0.0\nsamples = 2\nvalue = [2, 0]"] ;
7 -> 8 ;
9 [label="X[0] <= 25.3\nentropy = 0.811\nsamples = 4\nvalue = [1, 3]"] ;
7 -> 9 ;
10 [label="entropy = 0.0\nsamples = 3\nvalue = [0, 3]"] ;
9 -> 10 ;
11 [label="entropy = 0.0\nsamples = 1\nvalue = [1, 0]"] ;
9 -> 11 ;
12 [label="entropy = 0.0\nsamples = 1\nvalue = [1, 0]"] ;
0 -> 12 [labeldistance=2.5, labelangle=-45, headlabel="False"] ;
}